digraph Tree {
node [shape=box, style="filled, rounded", color="black", fontname="helvetica"] ;
edge [fontname="helvetica"] ;
0 [label=<adversity_reaction_intellect &le; 0.5<br/>gini = 0.654<br/>samples = 36<br/>value = [20, 14, 23]<br/>class = raven>, fillcolor="#f5effd"] ;
1 [label=<environment_grasslands &le; 0.5<br/>gini = 0.562<br/>samples = 16<br/>value = [8, 12, 2]<br/>class = lion>, fillcolor="#c6f8db"] ;
0 -> 1 [labeldistance=2.5, labelangle=45, headlabel="True"] ;
2 [label=<characteristic_leadership &le; 0.5<br/>gini = 0.595<br/>samples = 8<br/>value = [6, 3, 2]<br/>class = beaver>, fillcolor="#f5d0b5"] ;
1 -> 2 ;
3 [label=<challenge_approach_headon &le; 0.5<br/>gini = 0.245<br/>samples = 5<br/>value = [6, 0, 1]<br/>class = beaver>, fillcolor="#e9965a"] ;
2 -> 3 ;
4 [label=<gini = 0.0<br/>samples = 4<br/>value = [6, 0, 0]<br/>class = beaver>, fillcolor="#e58139"] ;
3 -> 4 ;
5 [label=<gini = 0.0<br/>samples = 1<br/>value = [0, 0, 1]<br/>class = raven>, fillcolor="#8139e5"] ;
3 -> 5 ;
6 [label=<adversity_reaction_confront &le; 0.5<br/>gini = 0.375<br/>samples = 3<br/>value = [0, 3, 1]<br/>class = lion>, fillcolor="#7beeab"] ;
2 -> 6 ;
7 [label=<gini = 0.0<br/>samples = 2<br/>value = [0, 3, 0]<br/>class = lion>, fillcolor="#39e581"] ;
6 -> 7 ;
8 [label=<gini = 0.0<br/>samples = 1<br/>value = [0, 0, 1]<br/>class = raven>, fillcolor="#8139e5"] ;
6 -> 8 ;
9 [label=<gini = 0.298<br/>samples = 8<br/>value = [2, 9, 0]<br/>class = lion>, fillcolor="#65eb9d"] ;
1 -> 9 ;
10 [label=<environment_woodlands &le; 0.5<br/>gini = 0.519<br/>samples = 20<br/>value = [12, 2, 21]<br/>class = raven>, fillcolor="#ceb2f5"] ;
0 -> 10 [labeldistance=2.5, labelangle=-45, headlabel="False"] ;
11 [label=<environment_grasslands &le; 0.5<br/>gini = 0.314<br/>samples = 15<br/>value = [2, 2, 18]<br/>class = raven>, fillcolor="#9a61ea"] ;
10 -> 11 ;
12 [label=<characteristic_intelligence &le; 0.5<br/>gini = 0.133<br/>samples = 9<br/>value = [1, 0, 13]<br/>class = raven>, fillcolor="#8b48e7"] ;
11 -> 12 ;
13 [label=<gini = 0.0<br/>samples = 1<br/>value = [0, 0, 2]<br/>class = raven>, fillcolor="#8139e5"] ;
12 -> 13 ;
14 [label=<role_observer &le; 0.5<br/>gini = 0.153<br/>samples = 8<br/>value = [1, 0, 11]<br/>class = raven>, fillcolor="#8c4be7"] ;
12 -> 14 ;
15 [label=<gini = 0.0<br/>samples = 1<br/>value = [0, 0, 1]<br/>class = raven>, fillcolor="#8139e5"] ;
14 -> 15 ;
16 [label=<gini = 0.165<br/>samples = 7<br/>value = [1, 0, 10]<br/>class = raven>, fillcolor="#8e4de8"] ;
14 -> 16 ;
17 [label=<challenge_approach_strategically &le; 0.5<br/>gini = 0.531<br/>samples = 6<br/>value = [1, 2, 5]<br/>class = raven>, fillcolor="#c09cf2"] ;
11 -> 17 ;
18 [label=<gini = 0.0<br/>samples = 1<br/>value = [0, 1, 0]<br/>class = lion>, fillcolor="#39e581"] ;
17 -> 18 ;
19 [label=<role_supporter &le; 0.5<br/>gini = 0.449<br/>samples = 5<br/>value = [1, 1, 5]<br/>class = raven>, fillcolor="#ab7bee"] ;
17 -> 19 ;
20 [label=<gini = 0.0<br/>samples = 2<br/>value = [0, 0, 4]<br/>class = raven>, fillcolor="#8139e5"] ;
19 -> 20 ;
21 [label=<gini = 0.667<br/>samples = 3<br/>value = [1, 1, 1]<br/>class = beaver>, fillcolor="#ffffff"] ;
19 -> 21 ;
22 [label=<characteristic_intelligence &le; 0.5<br/>gini = 0.355<br/>samples = 5<br/>value = [10, 0, 3]<br/>class = beaver>, fillcolor="#eda774"] ;
10 -> 22 ;
23 [label=<challenge_approach_headon &le; 0.5<br/>gini = 0.278<br/>samples = 2<br/>value = [5, 0, 1]<br/>class = beaver>, fillcolor="#ea9a61"] ;
22 -> 23 ;
24 [label=<gini = 0.0<br/>samples = 1<br/>value = [0, 0, 1]<br/>class = raven>, fillcolor="#8139e5"] ;
23 -> 24 ;
25 [label=<gini = 0.0<br/>samples = 1<br/>value = [5, 0, 0]<br/>class = beaver>, fillcolor="#e58139"] ;
23 -> 25 ;
26 [label=<role_observer &le; 0.5<br/>gini = 0.408<br/>samples = 3<br/>value = [5, 0, 2]<br/>class = beaver>, fillcolor="#efb388"] ;
22 -> 26 ;
27 [label=<gini = 0.0<br/>samples = 1<br/>value = [2, 0, 0]<br/>class = beaver>, fillcolor="#e58139"] ;
26 -> 27 ;
28 [label=<gini = 0.48<br/>samples = 2<br/>value = [3, 0, 2]<br/>class = beaver>, fillcolor="#f6d5bd"] ;
26 -> 28 ;
}